<?xml version="1.0" encoding="UTF-8"?>
<BIF VERSION="0.3"  xmlns="http://www.cs.ubc.ca/labs/lci/fopi/ve/XMLBIFv0_3"
	xmlns:xsi="http://www.w3.org/2001/XMLSchema-instance"
	xsi:schemaLocation="http://www.cs.ubc.ca/labs/lci/fopi/ve/XMLBIFv0_3 http://www.cs.ubc.ca/labs/lci/fopi/ve/XMLBIFv0_3/XMLBIFv0_3.xsd">
<NETWORK>
<NAME>Untitled</NAME>
<PROPERTY>short = </PROPERTY>
<PROPERTY>detailed = </PROPERTY>

<VARIABLE TYPE="nature">
	<NAME>S_1</NAME>
	<OUTCOME>T</OUTCOME>
	<OUTCOME>F</OUTCOME>
	<PROPERTY>position = (7527.6142578125, 5013.38671875)</PROPERTY>
</VARIABLE>

<VARIABLE TYPE="nature">
	<NAME>S_2</NAME>
	<OUTCOME>T</OUTCOME>
	<OUTCOME>F</OUTCOME>
	<PROPERTY>position = (7696.875, 5001.2197265625)</PROPERTY>
</VARIABLE>

<VARIABLE TYPE="nature">
	<NAME>E</NAME>
	<OUTCOME>T</OUTCOME>
	<OUTCOME>F</OUTCOME>
	<PROPERTY>position = (7528.7216796875, 5120.69677734375)</PROPERTY>
</VARIABLE>

<VARIABLE TYPE="nature">
	<NAME>N</NAME>
	<OUTCOME>T</OUTCOME>
	<OUTCOME>F</OUTCOME>
	<PROPERTY>position = (7688.029296875, 5109.63134765625)</PROPERTY>
</VARIABLE>

<VARIABLE TYPE="nature">
	<NAME>Asia</NAME>
	<OUTCOME>T</OUTCOME>
	<OUTCOME>F</OUTCOME>
	<PROPERTY>position = (7936.9423828125, 4997.89599609375)</PROPERTY>
</VARIABLE>

<VARIABLE TYPE="nature">
	<NAME>Smoke</NAME>
	<OUTCOME>T</OUTCOME>
	<OUTCOME>F</OUTCOME>
	<PROPERTY>position = (8046.46630859375, 4989.05078125)</PROPERTY>
</VARIABLE>

<VARIABLE TYPE="nature">
	<NAME>TBC</NAME>
	<OUTCOME>T</OUTCOME>
	<OUTCOME>F</OUTCOME>
	<PROPERTY>position = (7907.07177734375, 5086.40087890625)</PROPERTY>
</VARIABLE>

<VARIABLE TYPE="nature">
	<NAME>LC</NAME>
	<OUTCOME>T</OUTCOME>
	<OUTCOME>F</OUTCOME>
	<PROPERTY>position = (8024.3388671875, 5088.615234375)</PROPERTY>
</VARIABLE>

<VARIABLE TYPE="nature">
	<NAME>Bron</NAME>
	<OUTCOME>T</OUTCOME>
	<OUTCOME>F</OUTCOME>
	<PROPERTY>position = (8151.564453125, 5086.40087890625)</PROPERTY>
</VARIABLE>

<VARIABLE TYPE="nature">
	<NAME>Xray</NAME>
	<OUTCOME>T</OUTCOME>
	<OUTCOME>F</OUTCOME>
	<PROPERTY>position = (7945.7939453125, 5172.68896484375)</PROPERTY>
</VARIABLE>

<VARIABLE TYPE="nature">
	<NAME>Dysp</NAME>
	<OUTCOME>T</OUTCOME>
	<OUTCOME>F</OUTCOME>
	<PROPERTY>position = (8102.88720703125, 5185.96630859375)</PROPERTY>
</VARIABLE>

<VARIABLE TYPE="nature">
	<NAME>Mal</NAME>
	<OUTCOME>T</OUTCOME>
	<OUTCOME>F</OUTCOME>
	<PROPERTY>position = (7574.08056640625, 5322.04052734375)</PROPERTY>
</VARIABLE>

<VARIABLE TYPE="nature">
	<NAME>Men</NAME>
	<OUTCOME>T</OUTCOME>
	<OUTCOME>F</OUTCOME>
	<PROPERTY>position = (7705.72705078125, 5324.25439453125)</PROPERTY>
</VARIABLE>

<VARIABLE TYPE="nature">
	<NAME>HBT</NAME>
	<OUTCOME>T</OUTCOME>
	<OUTCOME>F</OUTCOME>
	<PROPERTY>position = (7629.43798828125, 5458.4560546875)</PROPERTY>
</VARIABLE>

<VARIABLE TYPE="nature">
	<NAME>F</NAME>
	<OUTCOME>T</OUTCOME>
	<OUTCOME>F</OUTCOME>
	<OBS>T</OBS>
	<PROPERTY>position = (7626.07666015625, 5604.14453125)</PROPERTY>
</VARIABLE>

<DEFINITION>
	<FOR>S_1</FOR>
	<TABLE>0.5 0.5</TABLE>
</DEFINITION>

<DEFINITION>
	<FOR>S_2</FOR>
	<GIVEN>S_1</GIVEN>
	<TABLE>0.5 0.5 0.5 0.5</TABLE>
</DEFINITION>

<DEFINITION>
	<FOR>E</FOR>
	<GIVEN>S_1</GIVEN>
	<GIVEN>S_2</GIVEN>
	<TABLE>0.5 0.5 0.5 0.5 0.5 0.5 0.5 0.5</TABLE>
</DEFINITION>

<DEFINITION>
	<FOR>N</FOR>
	<GIVEN>S_1</GIVEN>
	<GIVEN>S_2</GIVEN>
	<GIVEN>E</GIVEN>
	<TABLE>0.5 0.5 0.5 0.5 0.5 0.5 0.5 0.5 0.5 0.5 0.5 0.5 0.5 0.5 0.5 0.5</TABLE>
</DEFINITION>

<DEFINITION>
	<FOR>Asia</FOR>
	<TABLE>0.05 0.95</TABLE>
</DEFINITION>

<DEFINITION>
	<FOR>Smoke</FOR>
	<TABLE>0.3 0.7</TABLE>
</DEFINITION>

<DEFINITION>
	<FOR>TBC</FOR>
	<GIVEN>Asia</GIVEN>
	<TABLE>0.01 0.99 0.001 0.999</TABLE>
</DEFINITION>

<DEFINITION>
	<FOR>LC</FOR>
	<GIVEN>Smoke</GIVEN>
	<TABLE>0.2 0.8 0.08 0.92</TABLE>
</DEFINITION>

<DEFINITION>
	<FOR>Bron</FOR>
	<GIVEN>Smoke</GIVEN>
	<TABLE>0.4 0.6 0.1 0.9</TABLE>
</DEFINITION>

<DEFINITION>
	<FOR>Xray</FOR>
	<GIVEN>TBC</GIVEN>
	<GIVEN>LC</GIVEN>
	<TABLE>0.98 0.02 0.94 0.06 0.92 0.08 0.92 0.08</TABLE>
</DEFINITION>

<DEFINITION>
	<FOR>Dysp</FOR>
	<GIVEN>TBC</GIVEN>
	<GIVEN>LC</GIVEN>
	<GIVEN>Bron</GIVEN>
	<TABLE>0.99 0.01 0.97 0.03 0.98 0.02 0.9 0.1 0.98 0.02 0.92 0.08 0.95 0.05 0.07 0.93</TABLE>
</DEFINITION>

<DEFINITION>
	<FOR>Mal</FOR>
	<TABLE>0.05 0.95</TABLE>
</DEFINITION>

<DEFINITION>
	<FOR>Men</FOR>
	<TABLE>0.8 0.2</TABLE>
</DEFINITION>

<DEFINITION>
	<FOR>HBT</FOR>
	<GIVEN>Mal</GIVEN>
	<GIVEN>Men</GIVEN>
	<TABLE>0.95 0.05 0.9 0.1 0.9 0.1 0.05 0.95</TABLE>
</DEFINITION>

<DEFINITION>
	<FOR>F</FOR>
	<GIVEN>HBT</GIVEN>
	<TABLE>0.95 0.05 0.002 0.998</TABLE>
</DEFINITION>
</NETWORK>
</BIF>
